<?xml version="1.0"?>
<MethodSetup Method="MLP::CharmMuTagger">
  <GeneralInfo>
    <Info name="TMVA Release" value="4.2.1 [262657]"/>
    <Info name="ROOT Release" value="6.18/04 [397828]"/>
    <Info name="Creator" value="ssekula"/>
    <Info name="Date" value="Sat Sep 19 15:18:16 2020"/>
    <Info name="Host" value="Linux lcgapp-centos7-x86-64-32.cern.ch 3.10.0-957.21.3.el7.x86_64 #1 SMP Tue Jun 18 16:35:19 UTC 2019 x86_64 x86_64 x86_64 GNU/Linux"/>
    <Info name="Dir" value="/scratch/users/ssekula/EIC/delphes_EIC/SimpleAnalysis/scripts"/>
    <Info name="Training events" value="1100000"/>
    <Info name="TrainingTime" value="6.57000336e+03"/>
    <Info name="AnalysisType" value="Classification"/>
  </GeneralInfo>
  <Options>
    <Option name="NCycles" modified="Yes">1000</Option>
    <Option name="HiddenLayers" modified="Yes">N+12</Option>
    <Option name="NeuronType" modified="Yes">ReLU</Option>
    <Option name="RandomSeed" modified="No">1</Option>
    <Option name="EstimatorType" modified="No">CE</Option>
    <Option name="NeuronInputType" modified="No">sum</Option>
    <Option name="V" modified="Yes">False</Option>
    <Option name="VerbosityLevel" modified="No">Default</Option>
    <Option name="VarTransform" modified="Yes">Norm</Option>
    <Option name="H" modified="Yes">False</Option>
    <Option name="CreateMVAPdfs" modified="No">False</Option>
    <Option name="IgnoreNegWeightsInTraining" modified="No">False</Option>
    <Option name="TrainingMethod" modified="No">BP</Option>
    <Option name="LearningRate" modified="No">2.000000e-02</Option>
    <Option name="DecayRate" modified="No">1.000000e-02</Option>
    <Option name="TestRate" modified="Yes">5</Option>
    <Option name="EpochMonitoring" modified="No">False</Option>
    <Option name="Sampling" modified="No">1.000000e+00</Option>
    <Option name="SamplingEpoch" modified="No">1.000000e+00</Option>
    <Option name="SamplingImportance" modified="No">1.000000e+00</Option>
    <Option name="SamplingTraining" modified="No">True</Option>
    <Option name="SamplingTesting" modified="No">False</Option>
    <Option name="ResetStep" modified="No">50</Option>
    <Option name="Tau" modified="No">3.000000e+00</Option>
    <Option name="BPMode" modified="No">sequential</Option>
    <Option name="BatchSize" modified="No">-1</Option>
    <Option name="ConvergenceImprove" modified="No">1.000000e-30</Option>
    <Option name="ConvergenceTests" modified="No">-1</Option>
    <Option name="UseRegulator" modified="Yes">False</Option>
    <Option name="UpdateLimit" modified="No">10000</Option>
    <Option name="CalculateErrors" modified="No">False</Option>
    <Option name="WeightRange" modified="No">1.000000e+00</Option>
  </Options>
  <Variables NVar="4">
    <Variable VarIndex="0" Expression="jet_mu1_pt" Label="jet_mu1_pt" Title="jet_mu1_pt" Unit="" Internal="jet_mu1_pt" Type="F" Min="-1.00000000e+00" Max="3.47892647e+01"/>
    <Variable VarIndex="1" Expression="jet_mu1_sIP3D" Label="jet_mu1_sIP3D" Title="jet_mu1_sIP3D" Unit="" Internal="jet_mu1_sIP3D" Type="F" Min="-1.99000000e+02" Max="1.49987045e+02"/>
    <Variable VarIndex="2" Expression="jet_mu2_pt" Label="jet_mu2_pt" Title="jet_mu2_pt" Unit="" Internal="jet_mu2_pt" Type="F" Min="-1.00000000e+00" Max="2.80207176e+01"/>
    <Variable VarIndex="3" Expression="jet_mu2_sIP3D" Label="jet_mu2_sIP3D" Title="jet_mu2_sIP3D" Unit="" Internal="jet_mu2_sIP3D" Type="F" Min="-1.99000000e+02" Max="1.49324020e+02"/>
  </Variables>
  <Spectators NSpec="4">
    <Spectator SpecIndex="0" Expression="jet_pt" Label="jet_pt" Title="jet_pt" Unit="" Internal="jet_pt" Type="F" Min="5.00005722e+00" Max="5.74187737e+01"/>
    <Spectator SpecIndex="1" Expression="jet_eta" Label="jet_eta" Title="jet_eta" Unit="" Internal="jet_eta" Type="F" Min="-1.33809459e+00" Max="2.99993157e+00"/>
    <Spectator SpecIndex="2" Expression="jet_flavor" Label="jet_flavor" Title="jet_flavor" Unit="" Internal="jet_flavor" Type="F" Min="0.00000000e+00" Max="2.10000000e+01"/>
    <Spectator SpecIndex="3" Expression="met_et" Label="met_et" Title="met_et" Unit="" Internal="met_et" Type="F" Min="1.00000534e+01" Max="5.79264297e+01"/>
  </Spectators>
  <Classes NClass="2">
    <Class Name="Signal" Index="0"/>
    <Class Name="Background" Index="1"/>
  </Classes>
  <Transformations NTransformations="1">
    <Transform Name="Normalize">
      <Selection>
        <Input NInputs="4">
          <Input Type="Variable" Label="jet_mu1_pt" Expression="jet_mu1_pt"/>
          <Input Type="Variable" Label="jet_mu1_sIP3D" Expression="jet_mu1_sIP3D"/>
          <Input Type="Variable" Label="jet_mu2_pt" Expression="jet_mu2_pt"/>
          <Input Type="Variable" Label="jet_mu2_sIP3D" Expression="jet_mu2_sIP3D"/>
        </Input>
        <Output NOutputs="4">
          <Output Type="Variable" Label="jet_mu1_pt" Expression="jet_mu1_pt"/>
          <Output Type="Variable" Label="jet_mu1_sIP3D" Expression="jet_mu1_sIP3D"/>
          <Output Type="Variable" Label="jet_mu2_pt" Expression="jet_mu2_pt"/>
          <Output Type="Variable" Label="jet_mu2_sIP3D" Expression="jet_mu2_sIP3D"/>
        </Output>
      </Selection>
      <Class ClassIndex="0">
        <Ranges>
          <Range Index="0" Min="-1.0000000000000000e+00" Max="2.0922107696533203e+01"/>
          <Range Index="1" Min="-1.9900000000000000e+02" Max="1.4990350341796875e+02"/>
          <Range Index="2" Min="-1.0000000000000000e+00" Max="2.6853040695190430e+01"/>
          <Range Index="3" Min="-1.9900000000000000e+02" Max="1.4696408081054688e+02"/>
        </Ranges>
      </Class>
      <Class ClassIndex="1">
        <Ranges>
          <Range Index="0" Min="-1.0000000000000000e+00" Max="3.4789264678955078e+01"/>
          <Range Index="1" Min="-1.9900000000000000e+02" Max="1.4998704528808594e+02"/>
          <Range Index="2" Min="-1.0000000000000000e+00" Max="2.8020717620849609e+01"/>
          <Range Index="3" Min="-1.9900000000000000e+02" Max="1.4932402038574219e+02"/>
        </Ranges>
      </Class>
      <Class ClassIndex="2">
        <Ranges>
          <Range Index="0" Min="-1.0000000000000000e+00" Max="3.4789264678955078e+01"/>
          <Range Index="1" Min="-1.9900000000000000e+02" Max="1.4998704528808594e+02"/>
          <Range Index="2" Min="-1.0000000000000000e+00" Max="2.8020717620849609e+01"/>
          <Range Index="3" Min="-1.9900000000000000e+02" Max="1.4932402038574219e+02"/>
        </Ranges>
      </Class>
    </Transform>
  </Transformations>
  <MVAPdfs/>
  <Weights>
    <Layout NLayers="3">
      <Layer Index="0" NNeurons="5">
        <Neuron NSynapses="16">
          2.4215493237827573e-01 2.0684385881522189e+00 -4.5373024313891626e-02 2.0466705865885912e+00 -3.5249942445500988e+00 -2.8441060996722262e-01 -7.5092020927213932e-01 4.2406296611451824e+00 3.1571974070362296e-01 4.5613970687345731e+00 -7.7743252334942192e-01 8.7999689952258742e-01 -7.0227271261131285e-01 -2.2418583338290810e-01 6.2785481388247966e-01 6.3285553595523114e-01 
        </Neuron>
        <Neuron NSynapses="16">
          -3.9507902873439056e+00 1.5869006833430517e+00 1.2363613180781174e-02 1.6366182470707908e+01 2.4798885609118022e+00 -2.4552400324915138e-03 2.8656522650580929e+01 -1.5246731608046038e-01 1.2654586144130231e-01 1.9643069674095501e+00 2.1672626873385088e+00 -4.1757472316650208e+00 -8.8222257322510078e-01 1.2209672076055442e-01 2.3805526026579611e+00 3.8165225706349617e+01 
        </Neuron>
        <Neuron NSynapses="16">
          2.3706052956908741e-01 2.3117629675841071e-02 4.5315999867964396e-01 -1.0929042674762038e-01 1.9846650820175975e+00 -4.6944049045863584e-01 -1.5139884607250897e-01 -1.1441444465456527e+00 2.6817698273194925e+00 2.7245743719958568e+00 2.6477641958662934e+00 5.4424719272500366e-01 -7.3257026124986094e-02 -1.4442699996507320e+00 1.4491135560990516e+00 2.1890131969320331e-01 
        </Neuron>
        <Neuron NSynapses="16">
          3.9627727906720063e+00 1.3487971234061311e+00 1.9084531215539531e+01 -1.7124920793507938e+00 1.9507487243772248e+00 1.5148673031179630e+01 1.6900897281887900e-01 -2.1074132610961835e+00 -1.0268119605292436e+00 -5.0309473004493972e+00 5.3990794642067588e+00 3.4749892360821648e+00 -9.3706710168506335e-01 4.5739474411145420e-01 -1.3841620260576883e+00 -1.5521490659110992e-01 
        </Neuron>
        <Neuron NSynapses="16">
          3.9808569693270235e-01 -5.7237070158033709e-01 -2.5777679145805554e+00 -1.0998193444144038e+00 -2.1777868378442666e-01 -3.2810831776692750e+00 -5.5508751911279219e+00 3.4743837358794022e-01 1.4564562332666728e+00 4.2193911087462865e+00 1.6707591765958796e+00 6.1370264607282332e-01 -2.5948194136464657e+00 -2.0460863762081996e+00 3.6567708865984455e-02 -4.9786234290119982e+00 
        </Neuron>
      </Layer>
      <Layer Index="1" NNeurons="17">
        <Neuron NSynapses="1">
          3.1007075325449520e+00 
        </Neuron>
        <Neuron NSynapses="1">
          -2.7831981121303584e-01 
        </Neuron>
        <Neuron NSynapses="1">
          5.9210354857947420e+00 
        </Neuron>
        <Neuron NSynapses="1">
          -2.8259886107694827e+00 
        </Neuron>
        <Neuron NSynapses="1">
          1.3809946675951774e+00 
        </Neuron>
        <Neuron NSynapses="1">
          -7.3653260807167387e+00 
        </Neuron>
        <Neuron NSynapses="1">
          -6.0646671525827642e+00 
        </Neuron>
        <Neuron NSynapses="1">
          -9.5153829785850330e-01 
        </Neuron>
        <Neuron NSynapses="1">
          -1.9462460650709215e+00 
        </Neuron>
        <Neuron NSynapses="1">
          1.1762348176004485e+00 
        </Neuron>
        <Neuron NSynapses="1">
          -2.1614154078921985e+00 
        </Neuron>
        <Neuron NSynapses="1">
          -3.2724016264608231e+00 
        </Neuron>
        <Neuron NSynapses="1">
          -2.3415918687097783e-13 
        </Neuron>
        <Neuron NSynapses="1">
          -1.5803805736950425e+00 
        </Neuron>
        <Neuron NSynapses="1">
          -2.2218048623464042e+00 
        </Neuron>
        <Neuron NSynapses="1">
          5.6715238516937090e+00 
        </Neuron>
        <Neuron NSynapses="1">
          -2.4133546539741229e+00 
        </Neuron>
      </Layer>
      <Layer Index="2" NNeurons="1">
        <Neuron NSynapses="0"/>
      </Layer>
    </Layout>
  </Weights>
</MethodSetup>
