<?xml version="1.0"?>
<MethodSetup Method="MLP::CharmKTagger">
  <GeneralInfo>
    <Info name="TMVA Release" value="4.2.1 [262657]"/>
    <Info name="ROOT Release" value="6.18/04 [397828]"/>
    <Info name="Creator" value="ssekula"/>
    <Info name="Date" value="Wed Sep 16 14:43:39 2020"/>
    <Info name="Host" value="Linux lcgapp-centos7-x86-64-32.cern.ch 3.10.0-957.21.3.el7.x86_64 #1 SMP Tue Jun 18 16:35:19 UTC 2019 x86_64 x86_64 x86_64 GNU/Linux"/>
    <Info name="Dir" value="/scratch/users/ssekula/EIC/delphes_EIC/SimpleAnalysis/scripts"/>
    <Info name="Training events" value="110000"/>
    <Info name="TrainingTime" value="6.36755750e+02"/>
    <Info name="AnalysisType" value="Classification"/>
  </GeneralInfo>
  <Options>
    <Option name="NCycles" modified="Yes">1000</Option>
    <Option name="HiddenLayers" modified="Yes">N+12</Option>
    <Option name="NeuronType" modified="Yes">ReLU</Option>
    <Option name="RandomSeed" modified="No">1</Option>
    <Option name="EstimatorType" modified="No">CE</Option>
    <Option name="NeuronInputType" modified="No">sum</Option>
    <Option name="V" modified="Yes">False</Option>
    <Option name="VerbosityLevel" modified="No">Default</Option>
    <Option name="VarTransform" modified="Yes">Norm</Option>
    <Option name="H" modified="Yes">False</Option>
    <Option name="CreateMVAPdfs" modified="No">False</Option>
    <Option name="IgnoreNegWeightsInTraining" modified="No">False</Option>
    <Option name="TrainingMethod" modified="No">BP</Option>
    <Option name="LearningRate" modified="No">2.000000e-02</Option>
    <Option name="DecayRate" modified="No">1.000000e-02</Option>
    <Option name="TestRate" modified="Yes">5</Option>
    <Option name="EpochMonitoring" modified="No">False</Option>
    <Option name="Sampling" modified="No">1.000000e+00</Option>
    <Option name="SamplingEpoch" modified="No">1.000000e+00</Option>
    <Option name="SamplingImportance" modified="No">1.000000e+00</Option>
    <Option name="SamplingTraining" modified="No">True</Option>
    <Option name="SamplingTesting" modified="No">False</Option>
    <Option name="ResetStep" modified="No">50</Option>
    <Option name="Tau" modified="No">3.000000e+00</Option>
    <Option name="BPMode" modified="No">sequential</Option>
    <Option name="BatchSize" modified="No">-1</Option>
    <Option name="ConvergenceImprove" modified="No">1.000000e-30</Option>
    <Option name="ConvergenceTests" modified="No">-1</Option>
    <Option name="UseRegulator" modified="Yes">False</Option>
    <Option name="UpdateLimit" modified="No">10000</Option>
    <Option name="CalculateErrors" modified="No">False</Option>
    <Option name="WeightRange" modified="No">1.000000e+00</Option>
  </Options>
  <Variables NVar="4">
    <Variable VarIndex="0" Expression="jet_k1_pt" Label="jet_k1_pt" Title="jet_k1_pt" Unit="" Internal="jet_k1_pt" Type="F" Min="-1.00000000e+00" Max="3.34446716e+01"/>
    <Variable VarIndex="1" Expression="jet_k1_sIP3D" Label="jet_k1_sIP3D" Title="jet_k1_sIP3D" Unit="" Internal="jet_k1_sIP3D" Type="F" Min="-1.99000000e+02" Max="1.48688217e+02"/>
    <Variable VarIndex="2" Expression="jet_k2_pt" Label="jet_k2_pt" Title="jet_k2_pt" Unit="" Internal="jet_k2_pt" Type="F" Min="-1.00000000e+00" Max="3.07556400e+01"/>
    <Variable VarIndex="3" Expression="jet_k2_sIP3D" Label="jet_k2_sIP3D" Title="jet_k2_sIP3D" Unit="" Internal="jet_k2_sIP3D" Type="F" Min="-1.99000000e+02" Max="1.45901047e+02"/>
  </Variables>
  <Spectators NSpec="4">
    <Spectator SpecIndex="0" Expression="jet_pt" Label="jet_pt" Title="jet_pt" Unit="" Internal="jet_pt" Type="F" Min="5.00084496e+00" Max="5.47973328e+01"/>
    <Spectator SpecIndex="1" Expression="jet_eta" Label="jet_eta" Title="jet_eta" Unit="" Internal="jet_eta" Type="F" Min="-1.20925403e+00" Max="2.99968314e+00"/>
    <Spectator SpecIndex="2" Expression="jet_flavor" Label="jet_flavor" Title="jet_flavor" Unit="" Internal="jet_flavor" Type="F" Min="0.00000000e+00" Max="2.10000000e+01"/>
    <Spectator SpecIndex="3" Expression="met_et" Label="met_et" Title="met_et" Unit="" Internal="met_et" Type="F" Min="1.00000010e+01" Max="5.47714386e+01"/>
  </Spectators>
  <Classes NClass="2">
    <Class Name="Signal" Index="0"/>
    <Class Name="Background" Index="1"/>
  </Classes>
  <Transformations NTransformations="1">
    <Transform Name="Normalize">
      <Selection>
        <Input NInputs="4">
          <Input Type="Variable" Label="jet_k1_pt" Expression="jet_k1_pt"/>
          <Input Type="Variable" Label="jet_k1_sIP3D" Expression="jet_k1_sIP3D"/>
          <Input Type="Variable" Label="jet_k2_pt" Expression="jet_k2_pt"/>
          <Input Type="Variable" Label="jet_k2_sIP3D" Expression="jet_k2_sIP3D"/>
        </Input>
        <Output NOutputs="4">
          <Output Type="Variable" Label="jet_k1_pt" Expression="jet_k1_pt"/>
          <Output Type="Variable" Label="jet_k1_sIP3D" Expression="jet_k1_sIP3D"/>
          <Output Type="Variable" Label="jet_k2_pt" Expression="jet_k2_pt"/>
          <Output Type="Variable" Label="jet_k2_sIP3D" Expression="jet_k2_sIP3D"/>
        </Output>
      </Selection>
      <Class ClassIndex="0">
        <Ranges>
          <Range Index="0" Min="-1.0000000000000000e+00" Max="2.4055099487304688e+01"/>
          <Range Index="1" Min="-1.9900000000000000e+02" Max="1.2265203094482422e+02"/>
          <Range Index="2" Min="-1.0000000000000000e+00" Max="1.6399021148681641e+01"/>
          <Range Index="3" Min="-1.9900000000000000e+02" Max="1.4590104675292969e+02"/>
        </Ranges>
      </Class>
      <Class ClassIndex="1">
        <Ranges>
          <Range Index="0" Min="-1.0000000000000000e+00" Max="3.3444671630859375e+01"/>
          <Range Index="1" Min="-1.9900000000000000e+02" Max="1.4868821716308594e+02"/>
          <Range Index="2" Min="-1.0000000000000000e+00" Max="3.0755640029907227e+01"/>
          <Range Index="3" Min="-1.9900000000000000e+02" Max="1.3749807739257812e+02"/>
        </Ranges>
      </Class>
      <Class ClassIndex="2">
        <Ranges>
          <Range Index="0" Min="-1.0000000000000000e+00" Max="3.3444671630859375e+01"/>
          <Range Index="1" Min="-1.9900000000000000e+02" Max="1.4868821716308594e+02"/>
          <Range Index="2" Min="-1.0000000000000000e+00" Max="3.0755640029907227e+01"/>
          <Range Index="3" Min="-1.9900000000000000e+02" Max="1.4590104675292969e+02"/>
        </Ranges>
      </Class>
    </Transform>
  </Transformations>
  <MVAPdfs/>
  <Weights>
    <Layout NLayers="3">
      <Layer Index="0" NNeurons="5">
        <Neuron NSynapses="16">
          1.2730848281481419e-01 2.0425429307618748e+00 6.1651373992930891e-01 3.2105167141218099e-01 -7.9323735205943429e+00 -1.3243534037939027e+00 2.7275840492447812e-01 2.0657301080939989e+00 -8.5026327447965866e-01 -4.5743468125284297e+00 -2.6313946368020528e-02 -3.9599766280109960e-01 -1.0878449253336513e+00 -1.6831636026880081e+00 3.5172650868287209e-01 8.3175801843840369e-01 
        </Neuron>
        <Neuron NSynapses="16">
          -3.3251655890740328e+00 1.7056687847935861e+00 3.7777236598921299e-01 3.7670051363194923e+00 -4.6350497357828002e-01 -6.9659297816231636e-01 3.3376265462724952e+01 1.6834946162779751e+00 -1.0962384975198980e+00 6.7208538158822217e-01 5.1129154232548988e+00 -2.8311676288541956e+00 -2.7401934761091229e+00 1.9230787309271978e+01 1.2659504510067961e+01 1.3796999573337005e+00 
        </Neuron>
        <Neuron NSynapses="16">
          -1.5989293296201891e-02 6.5060293668437616e-02 6.3746383898808567e-01 -1.6520768110374426e+00 -2.2219182464321041e+00 1.8157794466679797e+00 -2.7082864168865051e-01 3.6868129963298113e-01 2.2000636900196282e+00 3.1964177550638380e+00 2.3979710067969537e-01 1.0773245989123978e+00 -4.9246983942877148e-01 5.8839141006683693e-02 3.2557039338462247e-02 6.7652112718205903e-01 
        </Neuron>
        <Neuron NSynapses="16">
          4.0014715878237936e+00 1.3395335166757831e+00 1.7951974694962736e+00 9.5856575925299161e+00 3.2839311825167200e-01 1.7646298699968728e+00 2.1391120015296434e-02 -1.6699669541534976e+00 -1.1960375390046483e-01 -1.5933850404584551e+00 1.3858792086322863e+01 2.2900539490280551e+00 -8.6385211822147157e-01 1.1152647802397574e-01 -3.3167842255581621e-03 5.6528996486488059e-01 
        </Neuron>
        <Neuron NSynapses="16">
          -7.2749072665956482e-02 -4.5849117053084432e-01 -1.8476506164034678e-01 -3.6148214194463120e+00 -8.4898984711066170e+00 -1.0175171762867663e+00 -4.9417513258297499e+00 -7.1878017895859503e-01 1.3395811977174985e-01 -1.9225793101536879e+00 -2.8275451203568545e+00 -2.4271240602295563e-01 -2.4693661319394549e+00 -4.7336699780785390e+00 -6.6964044165655989e-01 -4.1591417009334813e-01 
        </Neuron>
      </Layer>
      <Layer Index="1" NNeurons="17">
        <Neuron NSynapses="1">
          1.8527874472246453e+00 
        </Neuron>
        <Neuron NSynapses="1">
          4.4632883355844144e-01 
        </Neuron>
        <Neuron NSynapses="1">
          1.3259737768689908e+00 
        </Neuron>
        <Neuron NSynapses="1">
          -8.6363326281081214e+00 
        </Neuron>
        <Neuron NSynapses="1">
          -8.7099438130028417e-01 
        </Neuron>
        <Neuron NSynapses="1">
          -1.1534635442800456e+00 
        </Neuron>
        <Neuron NSynapses="1">
          6.5009381711196612e+00 
        </Neuron>
        <Neuron NSynapses="1">
          -1.4432041068208479e+00 
        </Neuron>
        <Neuron NSynapses="1">
          7.0052446629832876e-01 
        </Neuron>
        <Neuron NSynapses="1">
          -4.4202258435614139e-01 
        </Neuron>
        <Neuron NSynapses="1">
          5.3702329551164976e+00 
        </Neuron>
        <Neuron NSynapses="1">
          -3.2564113204539971e+00 
        </Neuron>
        <Neuron NSynapses="1">
          -1.0682772557868641e+00 
        </Neuron>
        <Neuron NSynapses="1">
          -8.2496940049541720e+00 
        </Neuron>
        <Neuron NSynapses="1">
          -5.0216728794061121e+00 
        </Neuron>
        <Neuron NSynapses="1">
          1.4697620888336413e+00 
        </Neuron>
        <Neuron NSynapses="1">
          1.7787955597646703e+00 
        </Neuron>
      </Layer>
      <Layer Index="2" NNeurons="1">
        <Neuron NSynapses="0"/>
      </Layer>
    </Layout>
  </Weights>
</MethodSetup>
