<?xml version="1.0"?>
<MethodSetup Method="MLP::CharmMuTagger">
  <GeneralInfo>
    <Info name="TMVA Release" value="4.2.1 [262657]"/>
    <Info name="ROOT Release" value="6.18/04 [397828]"/>
    <Info name="Creator" value="ssekula"/>
    <Info name="Date" value="Wed Sep 16 14:54:23 2020"/>
    <Info name="Host" value="Linux lcgapp-centos7-x86-64-32.cern.ch 3.10.0-957.21.3.el7.x86_64 #1 SMP Tue Jun 18 16:35:19 UTC 2019 x86_64 x86_64 x86_64 GNU/Linux"/>
    <Info name="Dir" value="/scratch/users/ssekula/EIC/delphes_EIC/SimpleAnalysis/scripts"/>
    <Info name="Training events" value="110000"/>
    <Info name="TrainingTime" value="6.31361182e+02"/>
    <Info name="AnalysisType" value="Classification"/>
  </GeneralInfo>
  <Options>
    <Option name="NCycles" modified="Yes">1000</Option>
    <Option name="HiddenLayers" modified="Yes">N+12</Option>
    <Option name="NeuronType" modified="Yes">ReLU</Option>
    <Option name="RandomSeed" modified="No">1</Option>
    <Option name="EstimatorType" modified="No">CE</Option>
    <Option name="NeuronInputType" modified="No">sum</Option>
    <Option name="V" modified="Yes">False</Option>
    <Option name="VerbosityLevel" modified="No">Default</Option>
    <Option name="VarTransform" modified="Yes">Norm</Option>
    <Option name="H" modified="Yes">False</Option>
    <Option name="CreateMVAPdfs" modified="No">False</Option>
    <Option name="IgnoreNegWeightsInTraining" modified="No">False</Option>
    <Option name="TrainingMethod" modified="No">BP</Option>
    <Option name="LearningRate" modified="No">2.000000e-02</Option>
    <Option name="DecayRate" modified="No">1.000000e-02</Option>
    <Option name="TestRate" modified="Yes">5</Option>
    <Option name="EpochMonitoring" modified="No">False</Option>
    <Option name="Sampling" modified="No">1.000000e+00</Option>
    <Option name="SamplingEpoch" modified="No">1.000000e+00</Option>
    <Option name="SamplingImportance" modified="No">1.000000e+00</Option>
    <Option name="SamplingTraining" modified="No">True</Option>
    <Option name="SamplingTesting" modified="No">False</Option>
    <Option name="ResetStep" modified="No">50</Option>
    <Option name="Tau" modified="No">3.000000e+00</Option>
    <Option name="BPMode" modified="No">sequential</Option>
    <Option name="BatchSize" modified="No">-1</Option>
    <Option name="ConvergenceImprove" modified="No">1.000000e-30</Option>
    <Option name="ConvergenceTests" modified="No">-1</Option>
    <Option name="UseRegulator" modified="Yes">False</Option>
    <Option name="UpdateLimit" modified="No">10000</Option>
    <Option name="CalculateErrors" modified="No">False</Option>
    <Option name="WeightRange" modified="No">1.000000e+00</Option>
  </Options>
  <Variables NVar="4">
    <Variable VarIndex="0" Expression="jet_mu1_pt" Label="jet_mu1_pt" Title="jet_mu1_pt" Unit="" Internal="jet_mu1_pt" Type="F" Min="-1.00000000e+00" Max="3.53291245e+01"/>
    <Variable VarIndex="1" Expression="jet_mu1_sIP3D" Label="jet_mu1_sIP3D" Title="jet_mu1_sIP3D" Unit="" Internal="jet_mu1_sIP3D" Type="F" Min="-1.99000000e+02" Max="1.48747208e+02"/>
    <Variable VarIndex="2" Expression="jet_mu2_pt" Label="jet_mu2_pt" Title="jet_mu2_pt" Unit="" Internal="jet_mu2_pt" Type="F" Min="-1.00000000e+00" Max="2.07897243e+01"/>
    <Variable VarIndex="3" Expression="jet_mu2_sIP3D" Label="jet_mu2_sIP3D" Title="jet_mu2_sIP3D" Unit="" Internal="jet_mu2_sIP3D" Type="F" Min="-1.99000000e+02" Max="1.44923340e+02"/>
  </Variables>
  <Spectators NSpec="4">
    <Spectator SpecIndex="0" Expression="jet_pt" Label="jet_pt" Title="jet_pt" Unit="" Internal="jet_pt" Type="F" Min="5.00084496e+00" Max="5.47973328e+01"/>
    <Spectator SpecIndex="1" Expression="jet_eta" Label="jet_eta" Title="jet_eta" Unit="" Internal="jet_eta" Type="F" Min="-1.20925403e+00" Max="2.99968314e+00"/>
    <Spectator SpecIndex="2" Expression="jet_flavor" Label="jet_flavor" Title="jet_flavor" Unit="" Internal="jet_flavor" Type="F" Min="0.00000000e+00" Max="2.10000000e+01"/>
    <Spectator SpecIndex="3" Expression="met_et" Label="met_et" Title="met_et" Unit="" Internal="met_et" Type="F" Min="1.00000010e+01" Max="5.47714386e+01"/>
  </Spectators>
  <Classes NClass="2">
    <Class Name="Signal" Index="0"/>
    <Class Name="Background" Index="1"/>
  </Classes>
  <Transformations NTransformations="1">
    <Transform Name="Normalize">
      <Selection>
        <Input NInputs="4">
          <Input Type="Variable" Label="jet_mu1_pt" Expression="jet_mu1_pt"/>
          <Input Type="Variable" Label="jet_mu1_sIP3D" Expression="jet_mu1_sIP3D"/>
          <Input Type="Variable" Label="jet_mu2_pt" Expression="jet_mu2_pt"/>
          <Input Type="Variable" Label="jet_mu2_sIP3D" Expression="jet_mu2_sIP3D"/>
        </Input>
        <Output NOutputs="4">
          <Output Type="Variable" Label="jet_mu1_pt" Expression="jet_mu1_pt"/>
          <Output Type="Variable" Label="jet_mu1_sIP3D" Expression="jet_mu1_sIP3D"/>
          <Output Type="Variable" Label="jet_mu2_pt" Expression="jet_mu2_pt"/>
          <Output Type="Variable" Label="jet_mu2_sIP3D" Expression="jet_mu2_sIP3D"/>
        </Output>
      </Selection>
      <Class ClassIndex="0">
        <Ranges>
          <Range Index="0" Min="-1.0000000000000000e+00" Max="1.4179519653320312e+01"/>
          <Range Index="1" Min="-1.9900000000000000e+02" Max="1.4874720764160156e+02"/>
          <Range Index="2" Min="-1.0000000000000000e+00" Max="1.2594927787780762e+01"/>
          <Range Index="3" Min="-1.9900000000000000e+02" Max="1.3971786499023438e+02"/>
        </Ranges>
      </Class>
      <Class ClassIndex="1">
        <Ranges>
          <Range Index="0" Min="-1.0000000000000000e+00" Max="3.5329124450683594e+01"/>
          <Range Index="1" Min="-1.9900000000000000e+02" Max="1.4867317199707031e+02"/>
          <Range Index="2" Min="-1.0000000000000000e+00" Max="2.0789724349975586e+01"/>
          <Range Index="3" Min="-1.9900000000000000e+02" Max="1.4492333984375000e+02"/>
        </Ranges>
      </Class>
      <Class ClassIndex="2">
        <Ranges>
          <Range Index="0" Min="-1.0000000000000000e+00" Max="3.5329124450683594e+01"/>
          <Range Index="1" Min="-1.9900000000000000e+02" Max="1.4874720764160156e+02"/>
          <Range Index="2" Min="-1.0000000000000000e+00" Max="2.0789724349975586e+01"/>
          <Range Index="3" Min="-1.9900000000000000e+02" Max="1.4492333984375000e+02"/>
        </Ranges>
      </Class>
    </Transform>
  </Transformations>
  <MVAPdfs/>
  <Weights>
    <Layout NLayers="3">
      <Layer Index="0" NNeurons="5">
        <Neuron NSynapses="16">
          -6.8997021605723940e-01 1.9079967136836384e+00 -2.4946065513579918e-01 3.0118777121352953e+00 -1.2684856730144629e+00 -1.0564143877531720e+00 -3.9602164215903346e-01 2.0596310152443400e+00 -4.3242417930891913e-01 -2.3894525702749950e-01 4.2764639411632437e-02 -4.5585361531873791e-01 -6.7549046764094889e-01 -2.6556088521521953e-01 4.7947876066121477e-02 4.0150530515529803e-01 
        </Neuron>
        <Neuron NSynapses="16">
          -9.8382764700764569e-01 1.6510615019833326e+00 1.1216637269360118e-03 1.2412435561403163e+00 3.0606565451048695e-01 -1.6381889220333712e-01 1.5362764753474693e+01 1.0689901738794857e-01 -8.2102925874277521e-01 2.2401568372176942e-02 1.3192080136013573e+00 -1.1477146190042475e+00 -9.2297907694718295e-01 1.0285263220733937e-01 2.5977478062927957e+00 2.0056328026052640e+01 
        </Neuron>
        <Neuron NSynapses="16">
          -1.1922345852868876e-01 1.7719124964593627e-01 -3.8171775548452642e-02 -1.5331507079487274e+00 -1.0677539440903298e-01 6.1985079923100694e-01 -3.7914899214865655e-01 1.0500879883063681e+00 2.0601943137318863e+00 2.5387118279355239e+00 2.3222409955155352e+00 1.1659474919914794e+00 -2.0188245884983972e-02 -1.4721244135035176e+00 6.3488644559955162e-02 -1.6248143228489838e-02 
        </Neuron>
        <Neuron NSynapses="16">
          1.1298704274289821e+00 1.4041660904374256e+00 5.8560295816070367e+00 -4.4709568697327035e-02 8.6545538820093165e-02 4.8474831356319976e+00 5.4269933905521671e-02 -9.7126904416403692e-01 -7.9370053420547981e-01 -1.8022716041053479e+00 1.8640935981097797e+00 6.7983238390227907e-01 -9.7626562721629673e-01 4.7789841138063183e-01 -2.3146091183624477e-02 -2.5041282773163913e-02 
        </Neuron>
        <Neuron NSynapses="16">
          -6.6318983259173137e-01 -8.0361488644857659e-01 -1.1229750920532231e+00 5.6859533352472169e-01 -9.8265012609695390e-01 -1.8433021542364447e+00 -3.4270185302503511e+00 -1.3680505146501309e+00 1.3040300500454696e-02 5.1989625307319598e-01 9.9785684622871218e-01 -2.9985626436523150e-01 -2.5949234176894160e+00 -2.0252917731014279e+00 -3.1509978953860601e-01 -2.7595980276602337e+00 
        </Neuron>
      </Layer>
      <Layer Index="1" NNeurons="17">
        <Neuron NSynapses="1">
          5.1242436542891800e-01 
        </Neuron>
        <Neuron NSynapses="1">
          3.8834470159173995e-01 
        </Neuron>
        <Neuron NSynapses="1">
          3.0464818318818705e+00 
        </Neuron>
        <Neuron NSynapses="1">
          -1.7338356578620082e+00 
        </Neuron>
        <Neuron NSynapses="1">
          2.1007125821137598e-01 
        </Neuron>
        <Neuron NSynapses="1">
          -4.2518412349163279e+00 
        </Neuron>
        <Neuron NSynapses="1">
          -9.1528472388975359e+00 
        </Neuron>
        <Neuron NSynapses="1">
          -1.1395974561426374e+00 
        </Neuron>
        <Neuron NSynapses="1">
          7.1812830007992490e-01 
        </Neuron>
        <Neuron NSynapses="1">
          6.8408010963050347e-01 
        </Neuron>
        <Neuron NSynapses="1">
          -5.6047118796572071e-01 
        </Neuron>
        <Neuron NSynapses="1">
          -3.1217844934587308e-01 
        </Neuron>
        <Neuron NSynapses="1">
          -8.5363576831626056e-13 
        </Neuron>
        <Neuron NSynapses="1">
          -1.6060622961276738e+00 
        </Neuron>
        <Neuron NSynapses="1">
          6.3544293399835639e-01 
        </Neuron>
        <Neuron NSynapses="1">
          6.7702115488861541e+00 
        </Neuron>
        <Neuron NSynapses="1">
          -2.4039153261470765e+00 
        </Neuron>
      </Layer>
      <Layer Index="2" NNeurons="1">
        <Neuron NSynapses="0"/>
      </Layer>
    </Layout>
  </Weights>
</MethodSetup>
