<?xml version="1.0"?>
<MethodSetup Method="MLP::CharmIP3DTagger">
  <GeneralInfo>
    <Info name="TMVA Release" value="4.2.1 [262657]"/>
    <Info name="ROOT Release" value="6.18/04 [397828]"/>
    <Info name="Creator" value="ssekula"/>
    <Info name="Date" value="Wed Sep 30 10:58:12 2020"/>
    <Info name="Host" value="Linux lcgapp-centos7-x86-64-32.cern.ch 3.10.0-957.21.3.el7.x86_64 #1 SMP Tue Jun 18 16:35:19 UTC 2019 x86_64 x86_64 x86_64 GNU/Linux"/>
    <Info name="Dir" value="/scratch/users/ssekula/EIC/delphes_EIC/SimpleAnalysis/scripts"/>
    <Info name="Training events" value="110000"/>
    <Info name="TrainingTime" value="1.10350514e+03"/>
    <Info name="AnalysisType" value="Classification"/>
  </GeneralInfo>
  <Options>
    <Option name="NCycles" modified="Yes">1000</Option>
    <Option name="HiddenLayers" modified="Yes">N+16</Option>
    <Option name="NeuronType" modified="Yes">ReLU</Option>
    <Option name="RandomSeed" modified="No">1</Option>
    <Option name="EstimatorType" modified="No">CE</Option>
    <Option name="NeuronInputType" modified="No">sum</Option>
    <Option name="V" modified="Yes">False</Option>
    <Option name="VerbosityLevel" modified="No">Default</Option>
    <Option name="VarTransform" modified="Yes">Norm</Option>
    <Option name="H" modified="Yes">False</Option>
    <Option name="CreateMVAPdfs" modified="No">False</Option>
    <Option name="IgnoreNegWeightsInTraining" modified="No">False</Option>
    <Option name="TrainingMethod" modified="No">BP</Option>
    <Option name="LearningRate" modified="No">2.000000e-02</Option>
    <Option name="DecayRate" modified="No">1.000000e-02</Option>
    <Option name="TestRate" modified="Yes">5</Option>
    <Option name="EpochMonitoring" modified="No">False</Option>
    <Option name="Sampling" modified="No">1.000000e+00</Option>
    <Option name="SamplingEpoch" modified="No">1.000000e+00</Option>
    <Option name="SamplingImportance" modified="No">1.000000e+00</Option>
    <Option name="SamplingTraining" modified="No">True</Option>
    <Option name="SamplingTesting" modified="No">False</Option>
    <Option name="ResetStep" modified="No">50</Option>
    <Option name="Tau" modified="No">3.000000e+00</Option>
    <Option name="BPMode" modified="No">sequential</Option>
    <Option name="BatchSize" modified="No">-1</Option>
    <Option name="ConvergenceImprove" modified="No">1.000000e-30</Option>
    <Option name="ConvergenceTests" modified="No">-1</Option>
    <Option name="UseRegulator" modified="Yes">False</Option>
    <Option name="UpdateLimit" modified="No">10000</Option>
    <Option name="CalculateErrors" modified="No">False</Option>
    <Option name="WeightRange" modified="No">1.000000e+00</Option>
  </Options>
  <Variables NVar="8">
    <Variable VarIndex="0" Expression="jet_t1_pt" Label="jet_t1_pt" Title="jet_t1_pt" Unit="" Internal="jet_t1_pt" Type="F" Min="-1.00000000e+00" Max="3.91981430e+01"/>
    <Variable VarIndex="1" Expression="jet_t1_sIP3D" Label="jet_t1_sIP3D" Title="jet_t1_sIP3D" Unit="" Internal="jet_t1_sIP3D" Type="F" Min="-1.99000000e+02" Max="1.49985229e+02"/>
    <Variable VarIndex="2" Expression="jet_t2_pt" Label="jet_t2_pt" Title="jet_t2_pt" Unit="" Internal="jet_t2_pt" Type="F" Min="-1.00000000e+00" Max="3.39189148e+01"/>
    <Variable VarIndex="3" Expression="jet_t2_sIP3D" Label="jet_t2_sIP3D" Title="jet_t2_sIP3D" Unit="" Internal="jet_t2_sIP3D" Type="F" Min="-1.99000000e+02" Max="1.27609970e+02"/>
    <Variable VarIndex="4" Expression="jet_t3_pt" Label="jet_t3_pt" Title="jet_t3_pt" Unit="" Internal="jet_t3_pt" Type="F" Min="-1.00000000e+00" Max="3.00421562e+01"/>
    <Variable VarIndex="5" Expression="jet_t3_sIP3D" Label="jet_t3_sIP3D" Title="jet_t3_sIP3D" Unit="" Internal="jet_t3_sIP3D" Type="F" Min="-1.99000000e+02" Max="9.76465149e+01"/>
    <Variable VarIndex="6" Expression="jet_t4_pt" Label="jet_t4_pt" Title="jet_t4_pt" Unit="" Internal="jet_t4_pt" Type="F" Min="-1.00000000e+00" Max="3.74981766e+01"/>
    <Variable VarIndex="7" Expression="jet_t4_sIP3D" Label="jet_t4_sIP3D" Title="jet_t4_sIP3D" Unit="" Internal="jet_t4_sIP3D" Type="F" Min="-1.99000000e+02" Max="5.26489677e+01"/>
  </Variables>
  <Spectators NSpec="4">
    <Spectator SpecIndex="0" Expression="jet_pt" Label="jet_pt" Title="jet_pt" Unit="" Internal="jet_pt" Type="F" Min="5.00025749e+00" Max="5.43771935e+01"/>
    <Spectator SpecIndex="1" Expression="jet_eta" Label="jet_eta" Title="jet_eta" Unit="" Internal="jet_eta" Type="F" Min="-1.16122711e+00" Max="2.99927926e+00"/>
    <Spectator SpecIndex="2" Expression="jet_flavor" Label="jet_flavor" Title="jet_flavor" Unit="" Internal="jet_flavor" Type="F" Min="0.00000000e+00" Max="2.10000000e+01"/>
    <Spectator SpecIndex="3" Expression="met_et" Label="met_et" Title="met_et" Unit="" Internal="met_et" Type="F" Min="1.00000992e+01" Max="5.56571159e+01"/>
  </Spectators>
  <Classes NClass="2">
    <Class Name="Signal" Index="0"/>
    <Class Name="Background" Index="1"/>
  </Classes>
  <Transformations NTransformations="1">
    <Transform Name="Normalize">
      <Selection>
        <Input NInputs="8">
          <Input Type="Variable" Label="jet_t1_pt" Expression="jet_t1_pt"/>
          <Input Type="Variable" Label="jet_t1_sIP3D" Expression="jet_t1_sIP3D"/>
          <Input Type="Variable" Label="jet_t2_pt" Expression="jet_t2_pt"/>
          <Input Type="Variable" Label="jet_t2_sIP3D" Expression="jet_t2_sIP3D"/>
          <Input Type="Variable" Label="jet_t3_pt" Expression="jet_t3_pt"/>
          <Input Type="Variable" Label="jet_t3_sIP3D" Expression="jet_t3_sIP3D"/>
          <Input Type="Variable" Label="jet_t4_pt" Expression="jet_t4_pt"/>
          <Input Type="Variable" Label="jet_t4_sIP3D" Expression="jet_t4_sIP3D"/>
        </Input>
        <Output NOutputs="8">
          <Output Type="Variable" Label="jet_t1_pt" Expression="jet_t1_pt"/>
          <Output Type="Variable" Label="jet_t1_sIP3D" Expression="jet_t1_sIP3D"/>
          <Output Type="Variable" Label="jet_t2_pt" Expression="jet_t2_pt"/>
          <Output Type="Variable" Label="jet_t2_sIP3D" Expression="jet_t2_sIP3D"/>
          <Output Type="Variable" Label="jet_t3_pt" Expression="jet_t3_pt"/>
          <Output Type="Variable" Label="jet_t3_sIP3D" Expression="jet_t3_sIP3D"/>
          <Output Type="Variable" Label="jet_t4_pt" Expression="jet_t4_pt"/>
          <Output Type="Variable" Label="jet_t4_sIP3D" Expression="jet_t4_sIP3D"/>
        </Output>
      </Selection>
      <Class ClassIndex="0">
        <Ranges>
          <Range Index="0" Min="-1.0000000000000000e+00" Max="2.0593360900878906e+01"/>
          <Range Index="1" Min="-1.9900000000000000e+02" Max="1.4938833618164062e+02"/>
          <Range Index="2" Min="-1.0000000000000000e+00" Max="1.9582094192504883e+01"/>
          <Range Index="3" Min="-1.9900000000000000e+02" Max="1.2377681732177734e+02"/>
          <Range Index="4" Min="-1.0000000000000000e+00" Max="2.5474119186401367e+01"/>
          <Range Index="5" Min="-1.9900000000000000e+02" Max="9.7646514892578125e+01"/>
          <Range Index="6" Min="-1.0000000000000000e+00" Max="2.1839050292968750e+01"/>
          <Range Index="7" Min="-1.9900000000000000e+02" Max="5.2648967742919922e+01"/>
        </Ranges>
      </Class>
      <Class ClassIndex="1">
        <Ranges>
          <Range Index="0" Min="-1.0000000000000000e+00" Max="3.9198143005371094e+01"/>
          <Range Index="1" Min="-1.9900000000000000e+02" Max="1.4998522949218750e+02"/>
          <Range Index="2" Min="-1.0000000000000000e+00" Max="3.3918914794921875e+01"/>
          <Range Index="3" Min="-1.9900000000000000e+02" Max="1.2760997009277344e+02"/>
          <Range Index="4" Min="-1.0000000000000000e+00" Max="3.0042156219482422e+01"/>
          <Range Index="5" Min="-1.9900000000000000e+02" Max="7.0111351013183594e+01"/>
          <Range Index="6" Min="-1.0000000000000000e+00" Max="3.7498176574707031e+01"/>
          <Range Index="7" Min="-1.9900000000000000e+02" Max="6.7694258689880371e+00"/>
        </Ranges>
      </Class>
      <Class ClassIndex="2">
        <Ranges>
          <Range Index="0" Min="-1.0000000000000000e+00" Max="3.9198143005371094e+01"/>
          <Range Index="1" Min="-1.9900000000000000e+02" Max="1.4998522949218750e+02"/>
          <Range Index="2" Min="-1.0000000000000000e+00" Max="3.3918914794921875e+01"/>
          <Range Index="3" Min="-1.9900000000000000e+02" Max="1.2760997009277344e+02"/>
          <Range Index="4" Min="-1.0000000000000000e+00" Max="3.0042156219482422e+01"/>
          <Range Index="5" Min="-1.9900000000000000e+02" Max="9.7646514892578125e+01"/>
          <Range Index="6" Min="-1.0000000000000000e+00" Max="3.7498176574707031e+01"/>
          <Range Index="7" Min="-1.9900000000000000e+02" Max="5.2648967742919922e+01"/>
        </Ranges>
      </Class>
    </Transform>
  </Transformations>
  <MVAPdfs/>
  <Weights>
    <Layout NLayers="3">
      <Layer Index="0" NNeurons="9">
        <Neuron NSynapses="24">
          2.6254734761756571e-01 2.7829969589444730e+00 1.4432361053883322e+00 1.7175807793539175e+00 -1.6235843870011279e+00 3.4964608253966512e-01 1.8947561728122750e+00 1.5481025850752723e+00 -9.8982152148448924e-02 4.5609309410858750e-01 1.4853113939487995e-02 -1.2497853033423657e-01 5.1328904594239644e-01 1.1873823310986700e+00 -3.4640203762548568e-04 2.3426794911456246e+00 9.2074583345364502e-02 2.6071417089279638e+00 2.7207868368850441e-01 1.3125025644697463e-01 -3.2322192378342152e-01 -8.7216689849670670e-01 3.0792024655719343e+00 4.2593453184947305e-01 
        </Neuron>
        <Neuron NSynapses="24">
          -1.6916644964946943e+01 -1.6938879001158411e-01 1.1707369556182117e+00 -1.0563298411032531e+00 -3.8436683172875585e+00 -8.9724342789904210e-01 -4.1846602692665535e-01 1.8696370475377668e+00 1.2946517686487431e+00 -5.8175864723989186e+00 -1.9040980755770787e-01 -5.5399226666402102e-01 -2.5794719487472417e+01 2.1232190994707647e+00 -4.3637445871196334e+00 4.6410057788067265e+00 9.9472526987766341e-01 2.7156831154104655e+00 3.3306217222811945e+01 2.7182626131269011e+01 -7.4630326125770807e-01 -3.6412286674243668e+00 1.3072036158917633e+00 -1.4984579840367440e+01 
        </Neuron>
        <Neuron NSynapses="24">
          1.1054894331418812e+00 1.5055939553843118e+00 1.7851141976060516e+00 1.2492598295041284e+00 -3.4268961806287690e-01 6.7793068484201846e-01 -1.7884042398757976e+00 -1.3484141759173713e+00 -2.7413287652289887e-02 3.6678787131216123e-01 4.7244575617784564e-02 9.5631910640421525e-01 8.7019467623512170e-01 6.1426611896728968e-02 -4.4594027424502546e-02 4.7960344596271753e-01 1.8427764658983810e+00 3.5018164978723516e+00 3.6857819914322271e-02 1.6331001453354158e-01 7.6750845089554787e-01 4.6469510849596073e-02 -2.0848540486027337e-01 -7.9684237700798410e-01 
        </Neuron>
        <Neuron NSynapses="24">
          1.6256853252167652e+01 1.6103819388674250e+00 1.0995022067898956e+00 -3.0975921965829689e-01 -1.0584411771533322e+00 -1.4513789265742076e+01 1.0049112100508273e+00 -6.4488288846568498e-01 1.0414959440845371e+01 -5.9609987952154997e-01 -1.5893557386661339e+00 -5.9806701622712444e-01 -8.2081371996608821e-01 7.2659062484285659e+00 -6.9449058009417239e-02 2.0851496112294185e-01 -1.7253694275452285e+00 -3.1270641350617749e+00 -6.2273422761877022e-02 5.1660112389187531e-02 1.6343820178881288e+00 -8.5879382596336040e-01 9.6918888972977357e-01 -1.2772439573739380e+00 
        </Neuron>
        <Neuron NSynapses="24">
          1.6034350152276253e+00 -1.2306410430075778e+00 -8.7832101903784521e-01 -5.1055577589831966e-02 -7.7207604619151260e-01 5.3928475941955004e-02 8.2780689520634954e-01 2.7247651252315115e+00 -2.5926010409457882e+00 -8.5740801991460613e-02 1.3514311547976363e-01 -3.6338281051853011e-01 5.0123302627496580e-01 2.4250028200106558e-01 -8.0988105812730971e-02 1.8096931070307221e-01 7.8751185410500002e-01 1.6140684416175616e-01 1.1059359511697096e-01 1.6578139688409038e-01 3.5722214914858341e-01 1.7196267396174775e-01 7.7332741244095260e-01 2.3093187851229735e-01 
        </Neuron>
        <Neuron NSynapses="24">
          -1.3041700015289033e+00 3.7313443124927359e-01 -5.7161253640692367e-01 1.8626300100096973e+00 1.5449616624877947e+00 -3.9709232528004228e+00 -2.3301268490497420e+00 -7.4254317839449380e-01 8.8794119415364914e-01 4.2812016348581912e+00 1.7430103341210433e+01 -1.3768646745300808e+00 2.2159872492626025e+01 -4.8058236356662247e+00 -2.0367566489689212e-01 4.3512788104582505e+00 1.5701168753369268e+00 -2.2613886446123117e+00 -5.9240012574064381e-02 2.7977550101669465e-02 1.6136076515540481e+00 7.7104200654726485e-01 -1.0429199006200212e+00 -4.7082312344956928e-01 
        </Neuron>
        <Neuron NSynapses="24">
          -5.0291811315658720e-02 1.3548943709858901e+00 1.6453004244548053e+00 -6.4558343767975523e-01 8.0092394011775769e-01 -6.7889785040953332e-02 -1.4772630956443317e-01 5.9025819902165222e-01 -8.5868344567205901e-01 -4.1398454457669182e-01 -9.4228143047606627e-02 7.2462426786301404e-01 3.9106513992948055e-01 -4.5928940930316679e-02 3.2872446752981477e-01 8.9873450368288832e-01 1.9529841779389243e+00 6.4618130483135117e-01 -1.1944058370457851e-01 2.7247995590659091e-01 1.0037697488442063e+00 5.3550701270392420e-01 -1.5480103410103968e-01 2.3095843002447664e-01 
        </Neuron>
        <Neuron NSynapses="24">
          -7.5120468217511271e-01 -1.1893848101126312e+00 1.1814187191445020e+00 1.1170608714810333e+00 6.3515771425944201e-01 1.5889580151521651e+01 2.7263896566419348e+00 -1.9723966502153538e+00 -4.9838489860968099e-01 1.6818856975783605e+00 -3.4945675415605261e-02 -1.2642419365328246e+00 -3.5936142004274096e-01 3.9970975508931437e+00 3.4373773445907809e+00 -3.8895089428437957e+00 -1.8012261028350321e-01 -6.8971385026975152e-01 2.1656629295646164e-02 -8.1051109884536843e-02 -3.6745278351008892e-01 4.2422972399632947e-01 -6.7178152127581636e-01 1.2739574911265231e+01 
        </Neuron>
        <Neuron NSynapses="24">
          2.0599734577528428e-01 9.6968415781352368e-01 -4.2166618945262502e-01 -6.0819340994174320e-01 -3.1145440721854465e+00 -2.4789285617864034e+00 -1.0039437820193831e-01 -1.3693509421273440e+00 -5.5519290515177593e+00 -1.2774149323558184e-01 -5.4201448777395784e+00 -2.4045580374920603e+00 -8.6831923898507568e-01 -1.6449867372659663e+00 -1.4701812735476933e+00 -2.7855914565007525e+00 1.0124460807574895e+00 1.1733515570842079e+00 -4.8172260386400900e+00 -3.9513639352050225e+00 -1.9367150366306305e+00 -2.1217664541726085e+00 1.3196587335881975e+00 -3.9020977842071907e+00 
        </Neuron>
      </Layer>
      <Layer Index="1" NNeurons="25">
        <Neuron NSynapses="1">
          -2.5584766072739544e+00 
        </Neuron>
        <Neuron NSynapses="1">
          1.7208569523334640e+00 
        </Neuron>
        <Neuron NSynapses="1">
          1.8238175557909344e+00 
        </Neuron>
        <Neuron NSynapses="1">
          -1.7390255492140072e+00 
        </Neuron>
        <Neuron NSynapses="1">
          9.8517120692750071e-01 
        </Neuron>
        <Neuron NSynapses="1">
          -3.3112603632018436e+00 
        </Neuron>
        <Neuron NSynapses="1">
          -9.0026961113813431e-01 
        </Neuron>
        <Neuron NSynapses="1">
          2.4265027269337529e+00 
        </Neuron>
        <Neuron NSynapses="1">
          7.2405541647753424e-01 
        </Neuron>
        <Neuron NSynapses="1">
          3.0346683187757635e+00 
        </Neuron>
        <Neuron NSynapses="1">
          3.6478207419477520e+00 
        </Neuron>
        <Neuron NSynapses="1">
          1.2318408827277362e-01 
        </Neuron>
        <Neuron NSynapses="1">
          -2.6053432252350772e+00 
        </Neuron>
        <Neuron NSynapses="1">
          -9.5760265380974707e-01 
        </Neuron>
        <Neuron NSynapses="1">
          -8.2568708960659110e-01 
        </Neuron>
        <Neuron NSynapses="1">
          -9.9559217075780315e-01 
        </Neuron>
        <Neuron NSynapses="1">
          7.2775110234173979e-01 
        </Neuron>
        <Neuron NSynapses="1">
          -1.3582698517371161e+00 
        </Neuron>
        <Neuron NSynapses="1">
          6.5689028449852778e+00 
        </Neuron>
        <Neuron NSynapses="1">
          -8.2142487424382580e+00 
        </Neuron>
        <Neuron NSynapses="1">
          8.4609902743250132e-01 
        </Neuron>
        <Neuron NSynapses="1">
          8.5577286094198191e-01 
        </Neuron>
        <Neuron NSynapses="1">
          -7.8241886068043198e-01 
        </Neuron>
        <Neuron NSynapses="1">
          -9.0442635310425357e-01 
        </Neuron>
        <Neuron NSynapses="1">
          -1.1023519764324556e+00 
        </Neuron>
      </Layer>
      <Layer Index="2" NNeurons="1">
        <Neuron NSynapses="0"/>
      </Layer>
    </Layout>
  </Weights>
</MethodSetup>
